{
    "n_agents": 6,
    "input_dim": 5,
    "hidden_dim": 16,
    "output_dim": 2,
    "agents": [
        {
            "agent_id": 0,
            "weights": [
                -2.1070528696684154,
                -2.3513738388855865,
                2.5055931101875046,
                -0.2831236407685358,
                -2.291315614386784,
                -2.300527122886972,
                -3.85390201299842,
                -0.64531844921274,
                -0.7818815953204679,
                -1.5690916112861437,
                2.3591247561865982,
                1.0756489572727062,
                -0.2977855154414296,
                -2.989573254403061,
                -1.6075397194460532,
                -1.7568110707995335,
                -0.771415932448905,
                -1.375804720376091,
                -0.5345127555916087,
                -0.511412460190317,
                -1.2372224824385387,
                -0.0873266905102751,
                -1.2151439596894964,
                -1.3528081360202941,
                1.2601224407934741,
                -1.2010976281247692,
                -2.3438051384626215,
                -0.8587774950741959,
                -0.45751666811740627,
                0.7349844776304751,
                -1.8844680729843106,
                1.8149117743694383,
                1.8502403116684814,
                -1.9920888130397634,
                -2.1131053505069315,
                0.7636389594444779,
                -0.7131692637779423,
                -1.3239204208516058,
                -3.81320881215402,
                -0.27906231774488477,
                0.09792858138882228,
                0.5636209809214713,
                -1.9809830864561135,
                -2.8979363566842427,
                -0.0040212547024593304,
                2.974343625241299,
                -1.5702360220865115,
                1.5824836824577548,
                1.309857383431573,
                1.1887054143587676,
                1.1629006996905926,
                -3.551013235206496,
                -0.1902206384995392,
                1.4307601140249497,
                -0.10426850430259552,
                -1.8199287786424876,
                -0.9205552602286108,
                -2.5973281802407104,
                2.1267129662471067,
                -2.68172111091909,
                1.1304147503236415,
                -0.5670077428929319,
                0.5073970567958445,
                2.3148442277818213,
                0.24738883044039484,
                -2.0496900724449207,
                2.1097706757699606,
                -3.4936541874234623,
                -0.7180625991734954,
                -3.0253844443575675,
                3.103661673875618,
                0.9960974791871668,
                1.3645924659442377,
                1.4276920423078225,
                -2.9054949847672353,
                -1.0093020403292838,
                1.9985085799354392,
                1.288138603819279,
                2.192853877339582,
                0.4532921781913027,
                -1.6277415464525538,
                -1.6778223771866643,
                1.5432593762502265,
                -2.7720276061452767,
                2.555413006363326,
                2.1331495437893206,
                1.360904343517563,
                -1.8165326323878503,
                1.0423968993290442,
                4.357862697261682,
                -1.9143139918403682,
                0.19496530045464305,
                4.7939823162361506e-05,
                -3.04553063950046,
                1.3331069080220803,
                2.054009799057813,
                -1.2698100343631433,
                2.632098217067763,
                -2.720604386104515,
                -3.3355205625492945,
                -0.9894068592934109,
                -0.19993461422554476,
                -2.0260089804219192,
                0.1350933705729669,
                0.993090317480915,
                1.4286200269100657,
                1.246152567597028,
                -0.7522511985330144,
                -1.3533083589114012,
                1.5879772559874272,
                -0.9695057075885213,
                2.288989771769785
            ],
            "bias": [
                -0.6691381669164761,
                -2.6662201334471773,
                1.993904511889764,
                -1.220449712245424,
                1.7399628872278752,
                1.5438789211462693,
                -0.10189480019626347,
                -0.8962190468733169,
                2.1418565745097116,
                1.5917009059095995,
                0.8541013996517389,
                -3.014479861862942,
                2.4863716085598293,
                -1.5987875024099827,
                1.9888895140891265,
                1.7892066215241023,
                1.1172914752098537,
                2.046413529783646
            ]
        },
        {
            "agent_id": 1,
            "weights": [
                -1.71621418057387,
                -2.300605842953788,
                1.9185484395900438,
                -0.142646388862859,
                -2.5924418522453685,
                -1.7131267334167273,
                -3.4346724231284327,
                -0.7951125138153547,
                -1.2701770528891565,
                -1.515204819453289,
                1.6701741821829492,
                1.3455161615453408,
                -0.269715597117201,
                -2.8958876923859456,
                -1.5795122621382698,
                -1.108089720152289,
                -1.1018981546743367,
                -1.4054181552016538,
                -0.9169401493267882,
                -0.6293408892713537,
                -1.2754758158057498,
                -0.05423948633344716,
                -1.3201549610986099,
                -1.2447164293822273,
                1.3079574784009518,
                -1.3128623866726123,
                -2.66394136356461,
                -0.37264181603458046,
                -0.03116015313431325,
                0.3513570534564451,
                -2.158023795418184,
                1.8353315982983314,
                2.0321845017415034,
                -1.9477371340809868,
                -1.7957265626396268,
                0.7563380153757208,
                -0.6302884453634386,
                -1.1349811315695413,
                -3.8589513782605125,
                -0.01137929630825786,
                -0.599693687187616,
                0.5702015377943324,
                -1.8752543880236352,
                -2.823864800089815,
                -0.48644603097634614,
                2.6096235465581623,
                -1.730343130034593,
                1.5687705074803073,
                1.5238401176739296,
                1.3618974368980874,
                0.6986859452431375,
                -3.4426724822228114,
                -0.227600343181338,
                1.3126288004116855,
                0.041071103161256395,
                -1.6051915455120762,
                -0.5071405607685436,
                -3.011230733042485,
                2.3750202553981974,
                -3.118727373114412,
                1.4588563437216242,
                -0.7033642386403615,
                0.5711065944205999,
                2.549766513930362,
                0.9179325247963409,
                -1.6269204442777803,
                2.0319468646275323,
                -3.529633680874871,
                -1.1682065651790008,
                -3.1797623694642603,
                3.408851201326251,
                0.4449300756327304,
                1.2341177099009588,
                1.1505082222257128,
                -3.1034209663719996,
                -0.784770548344953,
                1.211061447720293,
                1.2091922739352854,
                1.8886287179785808,
                0.6514922242290678,
                -2.098099867532827,
                -2.0299931600037024,
                1.1435132212903554,
                -2.826577356034578,
                2.7352608213769383,
                1.9689125688737792,
                1.6000676143911214,
                -1.9727148814378677,
                0.8968334291512229,
                3.8153079659024476,
                -2.084356997785069,
                0.02873194634435136,
                0.2061382140812983,
                -2.9424179304227507,
                1.2699826791140647,
                2.005129008747793,
                -1.4960546825986756,
                2.2279854246750284,
                -2.9544268359474453,
                -2.5287507482474663,
                -1.2513717791378831,
                0.3158635842213843,
                -1.9190399403436196,
                0.2297647181132473,
                0.759150721331416,
                1.986998523596152,
                0.41650647741642,
                -0.5120630123793593,
                -2.0990725160580554,
                1.8308574356778622,
                -0.7451855491355495,
                2.2282557631645
            ],
            "bias": [
                -0.966419483333609,
                -2.5907886784353686,
                1.9152450857308954,
                -1.6336838128912199,
                1.5096779726564398,
                2.654285055983685,
                0.31948710562638677,
                -0.7057127385761168,
                1.792896806951202,
                1.8845138807257875,
                1.2953195502249568,
                -3.7072060516888086,
                1.5836282170518676,
                -1.5720895709085476,
                2.339571022403699,
                1.2581315647118223,
                1.5956755757420242,
                2.455488910806593
            ]
        },
        {
            "agent_id": 2,
            "weights": [
                -1.4035588277240063,
                -2.458536047100009,
                1.9964029646144728,
                -0.37867862255759377,
                -2.644781950393579,
                -1.7229001873666674,
                -3.099240009369334,
                -0.8109071544885533,
                -0.589086863622194,
                -1.2387745311067337,
                1.824438105995495,
                1.054041061298514,
                0.1628769678838014,
                -3.199984661242715,
                -1.5777991406920653,
                -1.3350889917471562,
                -1.0390939149642657,
                -1.331422710110786,
                -1.025167581319265,
                -0.6109483953251702,
                -1.1511984739201622,
                -0.042405350322010954,
                -1.410338252126005,
                -1.2149808288895678,
                1.222225863510969,
                -1.5260143252385243,
                -2.50352764159195,
                -0.42449600104576163,
                0.08909875608670395,
                0.5988347068070758,
                -1.965010893428061,
                1.6139705253832006,
                1.9068672137655183,
                -2.2279077581229303,
                -2.043348548341206,
                0.7000231502251623,
                -1.078110123752261,
                -1.1386983524304588,
                -3.5387066883285234,
                -0.026812965161067237,
                -0.7466041956712791,
                0.4625807941298588,
                -1.9433479015167512,
                -2.819531139126964,
                -0.11090142886753447,
                2.392861097812558,
                -2.066178157434255,
                1.6267513236457904,
                1.2228153428643105,
                1.3757046228216752,
                0.6109347483015793,
                -3.3553690291868774,
                -0.593029062643985,
                1.5180411244845804,
                0.10160897555169766,
                -1.7974805103097746,
                -0.6715961223476102,
                -2.3983189799463176,
                2.1143318106032614,
                -2.8709244371382123,
                1.4628852645698278,
                -1.025738649044582,
                1.0309854236386524,
                2.5117975029345176,
                0.7724947390793684,
                -1.770611795811869,
                1.9266263809128474,
                -3.2680726014677104,
                -1.1955030453699744,
                -3.140383534640536,
                3.351257879002268,
                0.19868862167514337,
                1.520668693746196,
                1.2816502833926873,
                -3.320465376565897,
                -0.7316217078068902,
                1.380861490656909,
                1.1596075883258405,
                2.1548035904967966,
                0.8811972339509376,
                -1.739178336186964,
                -2.1065139885233912,
                1.308706717600719,
                -2.5270284021705876,
                2.830159840928333,
                2.033620523877092,
                1.4464303555525893,
                -1.7970449309879912,
                0.784090621284704,
                3.6211929922493136,
                -1.8906649370946242,
                0.20139760269918572,
                0.39830485272647853,
                -3.0341654456549754,
                1.603011282562937,
                1.9589818440185052,
                -1.4622115276763223,
                2.342345558089129,
                -2.937525836691291,
                -2.4090243869803123,
                -1.3391900353696895,
                0.2413914530734602,
                -1.6408525777110035,
                0.2647270866984567,
                1.1064608587058566,
                2.0605830224620267,
                0.6084017726429034,
                -0.6505224842158929,
                -1.9986058288505724,
                2.051387880864363,
                -1.0683164223239068,
                2.3156473248109366
            ],
            "bias": [
                -0.652637302342841,
                -2.59549368382998,
                2.133485281873405,
                -1.4608357615933114,
                1.0976452612855234,
                2.547202211457507,
                0.3453398804815152,
                -0.9109786165224876,
                1.662078105087302,
                1.9184008784320628,
                0.9717520493108964,
                -3.212736318915068,
                1.6883372597171904,
                -1.7717184919862297,
                2.645290843601794,
                1.6922036790697597,
                1.2783474921302311,
                2.0970249842560325
            ]
        },
        {
            "agent_id": 3,
            "weights": [
                -1.6292530843327424,
                -2.3843477660240393,
                2.0827381872207273,
                -0.40105901462846594,
                -2.33152011686861,
                -2.0183319396230215,
                -3.349144784092417,
                -0.5698385569366767,
                -0.9519857403317518,
                -1.3834309889242542,
                1.8883950628162691,
                1.0842364277312266,
                -0.14710814535211564,
                -3.1133573292432506,
                -1.4450734642775138,
                -1.3644702558114477,
                -1.0298728563853292,
                -1.4422775873543836,
                -0.9612589493499569,
                -0.47127916618222865,
                -1.1244671703415594,
                -0.058592370495709686,
                -1.2858786202147263,
                -1.4372649219962963,
                1.288502910965014,
                -1.6328813491016214,
                -2.4282356022683307,
                -0.47933176332291755,
                -0.1330117192259097,
                0.28574114770481307,
                -1.9559857654579555,
                1.5856578558014218,
                1.9184205384070163,
                -2.318858161116258,
                -1.9740791466621797,
                0.6301299235004433,
                -1.1313410584273258,
                -1.4553938861819369,
                -3.710331623891996,
                -0.1903474110498095,
                -0.5868319478604772,
                0.5630809442175828,
                -1.700980588928222,
                -2.711796976071312,
                -0.10037529795858846,
                2.402664529101256,
                -2.1242372836100833,
                1.8709531104361228,
                1.2988456395813741,
                1.4142136561092056,
                0.41727525524217585,
                -3.277930413071391,
                -0.5474958721398624,
                1.5827796542904502,
                0.09357533969121956,
                -1.6656967892394825,
                -0.6064525575195177,
                -2.4357267069974964,
                2.1770573789673624,
                -2.7818198144595288,
                1.236266446176213,
                -1.0404027589086489,
                0.885499451595503,
                2.3576409776058633,
                1.0037273820851853,
                -1.9473862133198248,
                2.0268950964998846,
                -3.1590386313750423,
                -1.0713260877513062,
                -3.0563090547934784,
                3.418628264521266,
                0.6122118493716072,
                1.4809002791101995,
                1.3485634548688166,
                -3.3754957728912904,
                -0.7561521827529196,
                1.092866699433915,
                0.9572007954436932,
                2.117438176491101,
                0.9243738587754883,
                -1.8181216341080866,
                -2.1626776464843656,
                1.2231422367901386,
                -2.748439317620762,
                2.665554541127944,
                1.8642671230505359,
                1.6081714194911505,
                -1.8195563431115858,
                0.5892834518216578,
                3.5600298933049275,
                -1.7711836773896954,
                0.4105094554665164,
                0.03539192843546987,
                -3.089804828636184,
                1.5633611052658671,
                2.0195878727922407,
                -1.522761074177466,
                2.2537930274778386,
                -2.793591191656468,
                -2.459364796866703,
                -1.5225606657303061,
                0.15922038727435223,
                -1.5221566858689486,
                0.32018100522960913,
                0.9519914126914046,
                2.080250893532962,
                0.45614102694624253,
                -0.7315033109211576,
                -1.9445015726829042,
                2.0308902957853543,
                -1.019023471814522,
                2.5410114380131392
            ],
            "bias": [
                -0.5478307831265781,
                -2.547375621110191,
                2.087818350423061,
                -1.4361053554584657,
                1.225703474109587,
                2.56772566407782,
                0.6347574576543256,
                -0.8569708869259663,
                1.5777280964412996,
                2.0157183341150318,
                0.8861642130379768,
                -3.1032933296245497,
                1.7320866526612977,
                -1.9077972452304846,
                2.4463230979280315,
                1.390972908411053,
                1.2844007022234518,
                2.290313966826869
            ]
        },
        {
            "agent_id": 4,
            "weights": [
                -1.8600324251150968,
                -2.0724459501801724,
                2.846534452339934,
                -0.08778549074126235,
                -2.219193975684449,
                -1.9368937983268055,
                -4.020387283937151,
                -0.4757172114339479,
                -0.8202159661578429,
                -1.426281455395315,
                2.214624645138323,
                1.573031373315957,
                -0.03793223589287442,
                -2.9754252324967325,
                -1.991080839527878,
                -1.6966771129447156,
                -0.8115596888667257,
                -1.633344380597327,
                -0.9101141260798392,
                -0.6418367660588441,
                -0.7737148375889645,
                -0.16181873318266793,
                -1.3887620023927452,
                -1.5014013330733509,
                1.3351300572361515,
                -0.7547815528209834,
                -2.40882202751525,
                -0.876263881091543,
                -0.17336442635185587,
                0.8126190216744119,
                -1.8909223164752313,
                1.852855154618769,
                1.628054637324365,
                -2.0940661200274766,
                -1.7590609846594631,
                1.1871880272977848,
                -1.070420571907119,
                -1.5168366423870148,
                -4.13873814883334,
                -0.3161894132270035,
                -0.285678119047856,
                0.18933857477239327,
                -2.077638297923607,
                -2.997506115789471,
                0.31547981839082295,
                3.050777735998228,
                -1.7281632718533124,
                1.4337831613039658,
                1.4767155541833934,
                0.9928637503359588,
                1.4258244785418768,
                -3.2484565464659587,
                -0.2517358005625949,
                1.5862628033731252,
                -0.13597427287506186,
                -1.682253117435863,
                -1.0537569924946768,
                -2.50263610659808,
                1.9884482832014903,
                -2.779566134382758,
                1.2488436370675706,
                -0.24400928013930134,
                0.4697809998863003,
                2.1597239651701186,
                -0.11568798569534977,
                -1.741978866335466,
                1.8947630057851454,
                -3.1387550994143414,
                -0.8605129819869605,
                -3.1877831676337682,
                3.0857704278103597,
                0.5675583601092247,
                1.2287215162608631,
                1.2377544425456073,
                -2.810305730568707,
                -1.136120522724455,
                2.0165234049534977,
                1.4188995678387883,
                2.223645342426022,
                0.38731854873113525,
                -1.656381834640126,
                -2.1886305101088506,
                1.5324137615761813,
                -2.5830717216853003,
                2.826483781209314,
                2.0028301194569242,
                1.2768630895811113,
                -1.9228112701409201,
                0.7856882747702514,
                3.675436700501893,
                -2.2509517656910942,
                0.007772217677362518,
                -0.29081706006455377,
                -3.5097970398533596,
                1.5088328185531144,
                1.7134861260315661,
                -1.587252043890095,
                2.365389676452556,
                -2.954603131608371,
                -2.7873351354437417,
                -1.0700817430549479,
                -0.11752936807554998,
                -1.5573447108696747,
                0.12893172712137013,
                0.8102806111862193,
                1.7064698497565756,
                1.180335418983508,
                -0.7165898776200315,
                -1.4245165969457392,
                1.5399741751496236,
                -1.1882518426402175,
                2.4397830274731636
            ],
            "bias": [
                -0.9033216593335455,
                -2.4836680353305702,
                2.2370203525521966,
                -1.5137032908572983,
                1.6912107467724824,
                1.8859000565075634,
                0.20555184219565853,
                -0.8858660901094858,
                1.5887398241814055,
                1.766905885287542,
                0.5271272806813468,
                -3.104423272354934,
                1.9250179996173282,
                -1.6074983226264226,
                1.964202492277005,
                1.6510447765509781,
                1.2679928227081416,
                2.2603155642145976
            ]
        },
        {
            "agent_id": 5,
            "weights": [
                -1.7999672133763849,
                -2.285471428708973,
                1.8543668557396278,
                -0.3145406586206059,
                -2.360409591934274,
                -1.7568832764823006,
                -3.885081498426672,
                -0.3952645234059305,
                -0.6586116459445988,
                -1.6179538291877094,
                1.978421503832406,
                1.4284398262398037,
                0.36371088133133617,
                -3.166046635765291,
                -1.5261715774087221,
                -1.324040532881706,
                -0.6033557562058947,
                -1.7631563965011152,
                -0.6703265001465875,
                -0.542593619537693,
                -0.8897356628878894,
                0.6100041605628728,
                -1.22830496640749,
                -1.3163371039618643,
                1.5524926049073038,
                -1.4008288196114924,
                -1.8690814595587986,
                -1.0719881469872943,
                -0.37128091009265995,
                0.6456975306249398,
                -2.0475304079039662,
                1.4392554528813826,
                1.6072548527188486,
                -2.5687091994839992,
                -1.8829341837143205,
                0.8901000557735317,
                -1.236813663932211,
                -1.4995138998132365,
                -4.116080170951814,
                -0.3096764614424239,
                -0.3557040781011099,
                0.31993378548626183,
                -1.3904098283899269,
                -2.7025402874081634,
                -0.07655103475181867,
                2.4911005321715005,
                -1.6978233834038168,
                1.791367409664762,
                1.7007281723815972,
                1.1037803692948764,
                0.8100429206169292,
                -3.4787747876200994,
                -0.9153019409129655,
                1.5801736568542146,
                0.11031155048167413,
                -1.6749183369741125,
                -1.4253264736263185,
                -2.985499031056395,
                2.1015251763952576,
                -2.66381070718112,
                0.6167148150195781,
                -0.4117842347909648,
                0.9360199843811086,
                2.4446511631218955,
                0.426201310889427,
                -1.44005359867648,
                2.582430484387499,
                -3.806812629710147,
                -1.0033406130754547,
                -3.1456613496150285,
                2.3927507541701396,
                0.8853452156318307,
                1.3681487458975043,
                1.1499199181838782,
                -3.4348692817106965,
                -0.7895175969274951,
                1.8581611392139468,
                1.241536565585924,
                1.8448201613221442,
                0.46470232057072347,
                -1.7051888052313882,
                -1.9310580553142451,
                1.8193111424379718,
                -2.773048754842692,
                2.523220234211406,
                2.2960284706762426,
                1.0364587694845933,
                -2.0524084348253417,
                0.5275455685528968,
                4.044082473838998,
                -1.9702086511322068,
                0.32717097540113094,
                0.21066167999562307,
                -2.3375295653270016,
                1.692388438719173,
                2.0210736204818858,
                -0.9548764222439768,
                2.20155449883694,
                -2.453267555638183,
                -3.1681329786140133,
                -0.9565410264941402,
                0.3935042727734439,
                -1.635872381858329,
                0.35631169648734934,
                0.5194978092911487,
                1.7933804454991944,
                1.5767188372573195,
                -1.0410259059262055,
                -1.1562847941417835,
                1.8911963503063944,
                -1.3050190449445696,
                2.6900698779519057
            ],
            "bias": [
                -0.8590794042899085,
                -2.636031037530952,
                1.7450635710712306,
                -1.57502315843361,
                1.6057661798874536,
                1.9548291909761302,
                -0.012912522285564136,
                -0.8380953149300148,
                1.6466502087932395,
                1.9286975858189521,
                0.5784691701481177,
                -3.645546981841707,
                1.812035742036261,
                -1.249999165126783,
                1.9993888416777787,
                1.4072976752392237,
                1.3345328931842844,
                2.382151354225655
            ]
        }
   ]
}