{
    "n_agents": 6,
    "input_dim": 5,
    "output_dim": 2,
    "agents": [
        {
            "agent_id": 0,
            "weights": [
                -1.984627470694011,
                0.20982874980937471,
                -0.09927544569693098,
                0.2987290006179345,
                -0.5130023927623193,
                -0.1373188592600877,
                0.10001704253408003,
                -0.856707668432872,
                0.0653337199170142,
                -1.67233059674034
            ],
            "bias": [
                0.17239301945779284,
                0.09891079100127695
            ]
        },
        {
            "agent_id": 1,
            "weights": [
                -2.281578783459915,
                0.25037296420223276,
                -0.10830045178994377,
                0.15864350061691412,
                0.03267219145841016,
                -0.23662780189717014,
                0.18223549536524442,
                -2.1157005748186224,
                0.056584733733125024,
                -2.494241331843428
            ],
            "bias": [
                0.16998609799217815,
                0.008748464905919504
            ]
        },
        {
            "agent_id": 2,
            "weights": [
                -0.07326992943990662,
                0.11405369591795905,
                0.1283583719842505,
                -0.08111861291588512,
                -1.3822672193597287,
                -0.2230541816865793,
                0.11761660281428825,
                -1.0766871644137441,
                0.05278981974387418,
                0.5445577623078299
            ],
            "bias": [
                0.13135747263121864,
                0.10302059307659128
            ]
        },
        {
            "agent_id": 3,
            "weights": [
                1.3313528033343238,
                0.10633281178469882,
                0.12693545607207746,
                0.1121944458597875,
                -0.9398119834660843,
                -0.22075359791116955,
                0.15245304789352232,
                -0.05015157032858897,
                0.1478304764898022,
                -1.6678286099248076
            ],
            "bias": [
                0.4723678439673591,
                0.016776587483114794
            ]
        },
        {
            "agent_id": 4,
            "weights": [
                -3.27621793856952,
                0.5216221914831844,
                -0.10174881210317803,
                -0.0879442888480057,
                -0.5434370529357655,
                -0.3501376949931789,
                0.04123164626256536,
                -0.7774619435305862,
                0.0806134916224318,
                -2.8684026772602875
            ],
            "bias": [
                0.5044736375281301,
                0.09468645268409981
            ]
        },
        {
            "agent_id": 5,
            "weights": [
                1.2192918460521103,
                0.17466514117645238,
                -0.2035880336446706,
                1.4127004010049715,
                -0.7586477783539549,
                -0.1244747018782023,
                0.12930237744560236,
                -0.42434083453318616,
                0.09510719250263977,
                -0.017993299157646803
            ],
            "bias": [
                0.2898349595818599,
                0.0953606307661595
            ]
        }
    ]
}